0.61856955995268	0.6630385718662992	0.4740850041863363	0.22138168728275226	-0.280270669826055	-0.3106149243711051	0.4226320792765137	0.45588985439453816	-0.3067920760582574	0.026750847280189165	0.1894568021872407	-0.3372427009792603	0.08764268249575845	0.21874872791792163	0.9817387317865869	0.767803413683544	0.7638019487142993	0.570919863044757	0.8179157468978316	0.10132412254150659	-0.2649316279188823	-0.32477871173307643	0.3087850580319138	-0.3334451489713622	0.3377447279390854	-0.26767610803653935	0.23110379916443496	0.46902960330387267	0.5483553498598505	0.8816003179046719	0.16401731057182914	0.9316337296517183	0.24441826383106105	0.22182296869613938	0.7367913773302662	0.2570971549616153	0.28615828641642527	0.03630282998815868	-0.21720575832652653	-0.2592360997362917	0.1619915763363327	-0.2742683925609232	-0.2878331431536961	0.2707598320900839	0.6051018124877509	0.18713538327581866	0.8675628279143834	1.0352366925896177	0.5694583169565111	0.7245537977542186	0.0659982876572085	0.4612259413787728	0.6440178363594444	0.15109588434534005	-0.32957301192271193	-0.4391743995884789	-0.029343347702710076	-0.07036284747024513	0.6038145500540105	0.6990150515824464	0.35308057968830964	0.16712314887809282	0.5965541388279645	-0.40209112061502433	-0.002029390807123943	0.20491790833322138	0.9555406410047634	0.48154398834792356	0.9070079012739525	0.4241573257706591	0.035368234421728095	0.006929633151260495	0.12756218262590274	0.04771014908568494	0.6108142065075374	0.818590776380457	0.4608180120843302	0.9168473645838369	0.09062835156737908	-0.15870958082823683	0.5024617896301582	-0.3330902074024079	0.1566731784859493	0.023138715629421713	0.8644401458953969	0.4052107092469105	0.8971264017607784	0.5189646797863681	0.602396439461885	0.41926696619797565	0.7623697572879792	1.014498220770646	0.30887317100423073	-0.4031626953064156	-0.3900941829221839	0.18656143640102074	-0.12953946122141202	-0.2579104586542639	0.0432486764874036	0.45622790423129583	0.7358745454099184	0.564895689193183	0.041369001313607545	0.36460516329811354	0.7370421580639716	-0.22438324240888194	0.7057398456961239	0.323846018334048	-0.013911083641948596	-0.3988947702048091	0.20311910261149785	0.1507249121453128	0.1115517000413066	-0.4312533516529242	-0.30258786235151514	0.27523999434165125	-0.18068059812427073	0.25974541169157106	0.3131284697164006	0.6088328227177587	0.39810848160118956	0.6750147588045226	0.6371258116602463	0.13406779689827325	-0.1561018343626509	0.020036919579786594	-0.32180195473210205	0.40520399841575994	0.01544499143040301	0.517042770422206	-0.03996202737618271	-0.015985278900165878	-0.16775567097303465	0.9273530022512145	0.6429349385706999	0.2966236175365679	0.9974003243733299	0.2576566094595826	0.2774374012718425	0.3063786511523652	0.13658637364464704	0.15559691193978675	0.3804437785644138	0.3235067415644685	0.5195044722043958	0.4724179126612336	0.2603883119870074	-0.34479379539865523	0.19965103386666827	0.725428546923285	-0.17659630389816658	0.4769155570877944	0.8742017048848717	0.43272821989499055	0.2536339893513296	0.2754149886328823	0.3883898464922023	-0.12285999029372274	-0.32727787221072824	-0.30231171910036103	-0.15817747779905322	-0.010400622669481052	-0.09189357429419764	0.5359177278545432	0.7388591074788835	0.41443210344085757	0.6175564018396738	0.6059527336204084	0.6707201116395548	0.8506747951643041	0.8220491196318858	0.4593403752108396	0.2292939746841074	0.3333825686651845	-0.15726644038382864	-0.3636706288681083	0.13011540884568212	0.06820159378515844	0.42121132065903044	0.13651894367201314	0.7848098682329927	0.003009623219520474	0.23273751840753398	-0.40745685409749144	0.23082277314508387	0.7025312371261344	0.0007986144961639186	0.7961805209670936	0.37031789804135995	0.6782673500615805	0.5002213365200727	-0.1934641262441702	0.31189202099635976	0.7266320067060785	0.7251511556779537	0.9453462254520764	0.5401023042648191	0.4112044003986207	-0.06296872456960612	0.3191271990199094	0.23014966050373903	-0.2861984349188369	0.4470835588329485	0.538364225212791	0.42282621558704225	0.0025181229791718662	0.9804872870154958	-0.30164176951469307	0.2793378681568171	0.39199588986611217	0.8852877591767758	0.7113441092406958	0.8662490194094152	-0.26742861305209786	-0.27993302189006647	-0.056725376749137024	0.5330716721324634	-0.18819156315037666	0.051403652152871515	0.5740596923680185	0.39405105130001816	0.4131425921728257	0.3297036465119957	0.4781846805604522	1.021593669630547	0.3254784325175685	0.15109454245537451	0.9772821358385969	0.50165747228372	-0.20029203157276196	0.24002597831865582	-0.3186733384278025	0.00828019548277116	-0.2031085697917413	0.3479324195588956	0.36908486864205203	0.7943530361714001	0.4731453422675347	0.4391480472976916	0.26346052727416447	0.639032124435175	0.7393914457305689	0.2075491040392426	-0.38743758037896897	0.30463225537198374	0.4999847697816364	-0.2357677053710259	0.11900837109895282	0.06239215820856661	0.3501106482737728	0.20392726313410128	-0.2748121196830413	-0.25794912805276565	0.9437333435075113	0.5789669000956265	0.6488184371357141
0.9713673813219933	0.986041861610955	0.39005832253573025	0.3590779271603986	0.6711197385646485	0.4870932512526325	0.7044666572634068	0.7628795395163125	0.7254708254714488	0.37522513802443413	0.723669574413806	0.9354480254982789	0.1872890076025469	0.8127736970697022	0.5204243531629109	0.5423086769500378	0.4988577060424137	0.25823732135713046	0.7093515650336676	0.26387683121340366	0.37020827520562244	0.7394120467984333	0.4562702424522466	0.42414088930029475	0.6139068830742624	0.36427967234090797	0.4690867826671842	0.46336818934895274	0.40356305119788993	0.28180520377771584	0.34950434990758267	0.5417074688722802	0.9096710458190799	0.9433345086235932	0.9055163353071098	0.15375034533965642	0.44017579639558263	0.351582196335487	0.4250439801869017	1.0474497748598797	0.9923718448021047	0.4877649719180026	0.4953791957498534	0.5017788186780624	0.6189097749450584	0.31111594321498565	0.5124626209337558	0.6918908662849451	0.9492855407716181	0.5405286899958024	-0.722544827532003	-0.8913539690513193	-0.7544397287558353	-0.8411399921416971	-0.3582313805281117	-0.7021318526071771	-0.5410327000111556	-1.1846733436955255	0.7349295701038983	0.6590200101181135	0.25394640715364586	0.31645808825739	0.5419871301893425	0.6743404646368831	-0.5708420721725094	-1.1234084216452582	-1.1630012142046284	-0.47707475023591445	-1.1181045608556082	-0.4524581075971228	-1.169308367363624	-0.9707811764025447	-0.8620177821514896	-0.5308344528012084	0.9886784040792824	0.8168613726751999	0.2558263736785468	0.23776496207206205	-0.4352181268856461	-1.0265331206716755	-0.5948863599186918	-0.520168070009445	-0.6240953487111536	-0.22180030970903347	-0.8803949506157513	-0.9622306312522346	-1.1401859020789746	-0.2619675506931913	0.8203915669580524	0.864351488485212	0.5705744828566002	0.41800818380531807	0.24111121027119323	-0.6810358300905537	-0.5703654888156218	-0.9599207518307189	-0.5712575460863261	-0.269007293284462	-1.1253603248900468	-0.2500611453003218	-0.5358874119754896	-0.4124748331767927	0.3681455853304048	0.5015086642386487	0.3431949938792964	0.7487828850942226	0.2738182450524976	0.4024312407521287	-0.5654546958967808	-0.6236582226108511	-0.3613867201836523	-0.31197986254681453	-0.3371473918682316	-0.9883505048460242	-1.047586974645054	-0.8523648950038607	-0.567088680040202	0.28466691653693005	0.5024627534478945	0.5597893164662674	0.8396986792274344	0.3447370307463199	0.8506282833261611	-0.4672679053075021	-1.0080539076655592	-0.7659419573378985	-0.43574520229020064	-0.987563245981264	-0.5565221887892803	-0.8000337240474722	-1.0456983812176517	-0.3573433538489688	0.8503594120262048	0.878304161998998	0.975300588703682	0.6536953544252341	0.7653215757160385	0.7573605838158983	-0.9810737543456753	-0.44816775906257544	-0.6419584585077169	-0.8654240491378293	-0.36816028430453934	-1.0932444497518459	-0.747193454758919	-0.5307487509165388	-0.6887099067274804	0.3473378084127429	0.9580665017135983	1.0188375254635875	0.9151353671679863	0.9170936293552034	0.2417037499634482	-0.2520876043177815	-0.8468601460225897	-0.7001297101377169	-0.6016925270238922	-0.5903093232135348	-0.7107726829871404	-0.2501762871074182	-1.0686406888342361	-1.1809628109253625	1.0068454723002278	0.6756691627856644	0.6920948360430489	0.6350803089407382	0.41830979107064187	-0.43760901989605383	-0.6170068138947444	-0.9802582616474713	-0.8705042178661906	-0.8586622443722729	-0.5142820499694527	-0.6686841776697194	-0.29066914740194394	-1.019862571686905	-0.9816574043401485	0.3117103540132478	0.9699497328892436	0.2885196328713567	0.9156470850398228	-0.351349412398061	-0.896422017719608	-0.4636734083137128	-0.7789266360465252	-0.533018850343956	-0.48254392068033164	-0.7639661343930244	-0.6033459874877272	-1.0412453048873032	-0.6386561831645601	-0.7397543172127743	0.6412089332405285	0.31943778429574043	0.3954649508299598	0.9225570378594421	0.15581078664926262	-0.9024532399388665	-1.0880016991173238	-0.5610004007959393	-0.7725373912174063	-0.5824097743791166	-0.9616964809525956	-0.5277134880268349	-0.5717682068885916	-1.061335329942158	0.9566663964988855	0.9341930314507843	0.5164016061008203	0.9997086386130081	1.046123434074405	0.5815758739208967	0.7813804025757017	1.0418389006938344	0.5142952632712494	0.3215104285203884	0.9848625206649421	0.995442359738954	0.5451709089321034	0.6636927828331515	0.4456893269746118	0.290505046194438	0.8927197258340075	0.5350245662670448	1.02023179632899	0.8972265508533012	0.9578132371054828	1.0375490489112205	0.5262095019240028	1.069198533446654	0.6027735273764901	0.539655200843541	0.2132856352929164	0.6107727820391473	0.8064001816083588	0.8027785269450955	0.5291562231037034	0.3820654855130034	0.5973088751889527	0.6736881778102932	0.19189085252860896	0.4789990369748802	0.38746144743480737	0.46463880257149215	0.7815823135114636	0.3795874655857421	0.8564567085182027	0.9280639638593828	0.1954399326336081	0.6075697887862288	0.3830350870917014	0.7456494853001185	0.6528096050549342	0.669815653429612	0.45399343477084936	0.8310411758921439
-0.5451431361691951	-0.3507316912029456	-0.48270313485901245	-0.9995621053263344	0.9563122756273124	0.17678385458955476	0.21748382574740144	0.5678863197339261	0.7033283498621813	0.7046825555918012	0.5287444439910022	0.7056134683236368	-1.1257738653532627	-0.5951589763354996	-0.5822347737626297	-0.3671211479924544	-0.9864252214887697	-0.8274456287782779	-1.1241990466550007	0.3402747140108923	0.084443856453869	0.6353405571331943	0.9954935018212125	0.0621340308956452	0.9550199716661933	0.026141434319260023	0.40219703255634526	0.045611428513089664	0.37971965853333495	-0.42507437031696105	-0.42277154721086774	-1.0223783308459513	-0.43953366205046	-0.990279483587555	0.7342827273950341	0.5383907241957964	0.577210090849996	0.6340489809380214	-0.545199711981396	-1.1548891891772595	-0.42212535729643375	-1.11097748194883	0.8084011746461764	1.005822851899555	0.27235691121770716	0.03415914833277743	-0.8976175903070434	-0.6435523182356702	-0.9300087928660856	0.9099593251868552	0.5451918301556451	0.0725322959095469	0.5651487378841576	0.9777730911728044	-0.2970746442778095	-0.896344316222953	-0.4497876891241166	-0.23569418794740654	0.23450583836698696	0.25681273336991417	0.7945567248599461	0.5015317111972412	0.7256674273541199	-0.21804996174478153	0.9306864823654937	0.5484660108167776	0.4596445037104042	0.22940459194004703	0.09664298934748705	-0.9735554391798873	-0.7848971064463104	-0.9518101366025495	-0.9469210210978769	-1.0907846009107498	-0.3754516153294704	0.6464483171784825	0.29850395457781664	0.11281073203546443	0.038000832893976266	0.9211985284088035	0.6385779787965626	0.124836470495671	0.5288494423474247	0.35677910675637015	-1.0865536619036675	-0.25322009500255555	-1.0985372317354303	-1.0747001347792375	-0.4095785975986532	-1.1317326102520031	-1.148767869594798	-0.2543756743490055	0.2876552872419971	0.10145151014079491	0.12213521363692907	0.8847093949038854	0.6903293842836011	0.19138505090456792	-0.35036636360317736	-0.7647220862680866	-0.7802775214433277	-0.27269462850642107	-0.8992470238641108	-0.2654724376225907	-0.7210000171723139	-0.33245826330103745	-0.4654651668865681	-0.40807170264847575	-0.9976034859343772	-0.9304580903824144	0.7751409542090726	0.2563447330712941	0.6121162137247476	0.8471438623527632	-1.1495685579481545	-1.16884391122912	-1.1095182663412004	-0.75365399436031	-0.32452906594293685	-0.8590499463021637	-0.9914409559527548	-0.8956426976784715	-0.2437833720294575	-0.9517083163004694	-1.0128467395196885	-1.052844843862084	0.8589973331029548	0.12338409956861895	0.8948282859101555	0.8622415304811737	-0.9706351043299712	-0.22927684661632391	-0.8088947132291044	-0.5767547401689079	-0.7950966844247722	-0.5641417861896927	-0.6426396936694669	-0.763101934860873	-1.1451207355137705	-0.9807907332028412	-0.39607492679078266	-0.9906980912664127	0.11634471976635696	0.8548590116079151	0.7784121935179092	0.8100053934086212	-1.13020934286895	-1.1710207603773437	-0.7315302320437929	-0.3351295934877757	-0.9079383725176455	-1.1150716511388072	-1.1332961899507863	-0.8804721268067104	-0.6883727645995583	-0.21300409314669766	-0.3897919761390987	-0.28958016397918296	0.6330714558048792	0.7313165779185861	0.04129454718119474	0.2172009720728396	1.015746820174174	0.9927217575487269	-0.44434854290927417	-0.5155520522077273	-1.0244547163586712	-0.5214887810235574	-1.0194320947829978	-0.3928360102097013	-0.7814437673613703	-0.31382006945835805	0.12246822003960856	1.0056702468992837	0.6877958454674382	0.7400325235256338	0.925163411212442	0.21849211131317225	0.5307246341971636	0.4714638097757318	0.9387078332693999	-0.3919380900106893	-1.159777280485406	-0.25927412538697897	-1.1219789005090712	-0.5197728671336861	-0.9830606569577744	0.39648750810793976	0.9724419590340544	0.8532298566024291	0.7121438184885006	0.8513705430488442	-0.8655865221052872	0.7662041459951746	0.24492099589467992	0.538201382722412	0.4443979495263335	0.5287174843058396	-1.0832888138560852	-1.13418395536259	-0.3782498783100579	-0.7466723449156427	0.39057328413355297	0.29636905563932237	0.6744476845506397	0.7576141689013567	0.7387712179522258	-1.0407567862322542	-0.5367592997476227	-0.7250229765322438	0.5669094595321166	0.0319340131398242	0.9278606376882139	0.619747961962259	-1.0710853291885536	-0.9968196745049225	-0.36153112103089763	-0.4215450572653225	0.21840879680692923	0.34782610166134914	0.5807948267894895	0.0741425022363639	-1.0975005296474512	-0.2752495638348737	-0.2502255211488859	-0.9639292731038289	-1.0915285195311362	0.8306468989494237	0.9459344163394333	0.5678022181729803	0.4449874765157021	0.5601769668692479	0.5127394440514063	0.9358098260595954	0.8859566505110226	0.5415978910557855	0.4290017709190755	-0.29629896628660213	-0.646571758772676	-0.24526517742785775	-1.111556515911144	-0.9774155121514285	-1.106287125801659	-0.515107455694328	0.41115226635675856	0.13002032153505036	0.4833492393033636	0.3472507218990933	0.607887558661032	0.2602189693524734	0.06146389356129021	0.29876613553680426	-0.9218256533483584	-0.8087459938587773	-0.8242712422989296	-0.3803724252161094
